digraph Tree {
node [shape=box, style="filled, rounded", color="black", fontname=helvetica] ;
edge [fontname=helvetica] ;
0 [label="Proanthocyanins <= 1.32\nentropy = 1.55\nsamples = 97\nvalue = [49, 65, 37]\nclass = 2", fillcolor="#e0fbeb"] ;
1 [label="Hue <= 0.92\nentropy = 0.93\nsamples = 23\nvalue = [1, 9, 30]\nclass = 3", fillcolor="#aa79ed"] ;
0 -> 1 [labeldistance=2.5, labelangle=45, headlabel="True"] ;
2 [label="entropy = 0.0\nsamples = 16\nvalue = [0, 0, 30]\nclass = 3", fillcolor="#8139e5"] ;
1 -> 2 ;
3 [label="Proanthocyanins <= 1.2\nentropy = 0.47\nsamples = 7\nvalue = [1, 9, 0]\nclass = 2", fillcolor="#4fe88f"] ;
1 -> 3 ;
4 [label="entropy = 0.0\nsamples = 6\nvalue = [0, 9, 0]\nclass = 2", fillcolor="#39e581"] ;
3 -> 4 ;
5 [label="entropy = 0.0\nsamples = 1\nvalue = [1, 0, 0]\nclass = 1", fillcolor="#e58139"] ;
3 -> 5 ;
6 [label="Flavanoids <= 2.16\nentropy = 1.27\nsamples = 74\nvalue = [48, 56, 7]\nclass = 2", fillcolor="#e6fcef"] ;
0 -> 6 [labeldistance=2.5, labelangle=-45, headlabel="False"] ;
7 [label="MalicAcid <= 1.67\nentropy = 0.69\nsamples = 24\nvalue = [0, 31, 7]\nclass = 2", fillcolor="#66eb9d"] ;
6 -> 7 ;
8 [label="entropy = 0.0\nsamples = 10\nvalue = [0, 19, 0]\nclass = 2", fillcolor="#39e581"] ;
7 -> 8 ;
9 [label="0D280/OD315 <= 1.99\nentropy = 0.95\nsamples = 14\nvalue = [0, 12, 7]\nclass = 2", fillcolor="#acf4ca"] ;
7 -> 9 ;
10 [label="entropy = 0.0\nsamples = 6\nvalue = [0, 0, 7]\nclass = 3", fillcolor="#8139e5"] ;
9 -> 10 ;
11 [label="entropy = 0.0\nsamples = 8\nvalue = [0, 12, 0]\nclass = 2", fillcolor="#39e581"] ;
9 -> 11 ;
12 [label="Magnesium <= 90.0\nentropy = 0.93\nsamples = 50\nvalue = [48, 25, 0]\nclass = 1", fillcolor="#f3c3a0"] ;
6 -> 12 ;
13 [label="entropy = 0.0\nsamples = 10\nvalue = [0, 17, 0]\nclass = 2", fillcolor="#39e581"] ;
12 -> 13 ;
14 [label="Alcohol <= 13.02\nentropy = 0.59\nsamples = 40\nvalue = [48, 8, 0]\nclass = 1", fillcolor="#e9965a"] ;
12 -> 14 ;
15 [label="0D280/OD315 <= 3.51\nentropy = 0.5\nsamples = 7\nvalue = [1, 8, 0]\nclass = 2", fillcolor="#52e891"] ;
14 -> 15 ;
16 [label="entropy = 0.0\nsamples = 5\nvalue = [0, 7, 0]\nclass = 2", fillcolor="#39e581"] ;
15 -> 16 ;
17 [label="NonflavanoidPhenols <= 0.36\nentropy = 1.0\nsamples = 2\nvalue = [1, 1, 0]\nclass = 1", fillcolor="#ffffff"] ;
15 -> 17 ;
18 [label="entropy = 0.0\nsamples = 1\nvalue = [1, 0, 0]\nclass = 1", fillcolor="#e58139"] ;
17 -> 18 ;
19 [label="entropy = 0.0\nsamples = 1\nvalue = [0, 1, 0]\nclass = 2", fillcolor="#39e581"] ;
17 -> 19 ;
20 [label="entropy = 0.0\nsamples = 33\nvalue = [47, 0, 0]\nclass = 1", fillcolor="#e58139"] ;
14 -> 20 ;
}